digraph Tree {
node [shape=box, style="rounded", color="black", fontname=helvetica] ;
edge [fontname=helvetica] ;
0 [label=<$cur^3_{max}$ &le; 4.771<br/>entropy = 2.292<br/>samples = 1814<br/>value = [401, 403, 273, 457, 280]<br/>class = 3>] ;
1 [label=<$cur^2_{max}$ &le; 4.601<br/>entropy = 1.1<br/>samples = 872<br/>value = [401, 14, 0, 457, 0]<br/>class = 3>] ;
0 -> 1 [labeldistance=2.5, labelangle=45, headlabel="True"] ;
2 [label=<$cur^3_{max-ind}$ &le; 19.5<br/>entropy = 0.413<br/>samples = 429<br/>value = [401, 13, 0, 15, 0]<br/>class = 0>] ;
1 -> 2 ;
3 [label=<$cur^1_{max}$ &le; 4.089<br/>entropy = 1.283<br/>samples = 30<br/>value = [2, 13, 0, 15, 0]<br/>class = 3>] ;
2 -> 3 ;
4 [label=<entropy = 0.567<br/>samples = 15<br/>value = [2, 13, 0, 0, 0]<br/>class = 1>] ;
3 -> 4 ;
5 [label=<entropy = 0.0<br/>samples = 15<br/>value = [0, 0, 0, 15, 0]<br/>class = 3>] ;
3 -> 5 ;
6 [label=<entropy = 0.0<br/>samples = 399<br/>value = [399, 0, 0, 0, 0]<br/>class = 0>] ;
2 -> 6 ;
7 [label=<$vel^1_{std}$ &le; 0.197<br/>entropy = 0.023<br/>samples = 443<br/>value = [0, 1, 0, 442, 0]<br/>class = 3>] ;
1 -> 7 ;
8 [label=<entropy = 0.0<br/>samples = 442<br/>value = [0, 0, 0, 442, 0]<br/>class = 3>] ;
7 -> 8 ;
9 [label=<entropy = 0.0<br/>samples = 1<br/>value = [0, 1, 0, 0, 0]<br/>class = 1>] ;
7 -> 9 ;
10 [label=<$cur^3_{min}$ &le; -4.589<br/>entropy = 1.565<br/>samples = 942<br/>value = [0, 389, 273, 0, 280]<br/>class = 1>] ;
0 -> 10 [labeldistance=2.5, labelangle=-45, headlabel="False"] ;
11 [label=<entropy = 0.0<br/>samples = 389<br/>value = [0, 389, 0, 0, 0]<br/>class = 1>] ;
10 -> 11 ;
12 [label=<$cur^4_{min}$ &le; 0.581<br/>entropy = 1.0<br/>samples = 553<br/>value = [0, 0, 273, 0, 280]<br/>class = 4>] ;
10 -> 12 ;
13 [label=<entropy = 0.0<br/>samples = 273<br/>value = [0, 0, 273, 0, 0]<br/>class = 2>] ;
12 -> 13 ;
14 [label=<entropy = 0.0<br/>samples = 280<br/>value = [0, 0, 0, 0, 280]<br/>class = 4>] ;
12 -> 14 ;
}
